//Numpy array shape [16, 64]
//Min -0.636937081814
//Max 0.755066275597
//Number of zeros 0

#ifndef W2_H_
#define W2_H_

#ifndef __SYNTHESIS__
model_default_t w2[1024];
#else
model_default_t w2[1024] = {-0.3410741091, -0.2567961216, 0.1496966183, -0.2275190502, -0.0494612940, 0.1625030041, -0.3463989794, 0.1338596195, -0.0603822097, -0.0761741847, 0.2139138877, 0.0444473401, -0.0749472156, 0.2047250867, 0.1332412213, -0.2204267979, -0.2246821821, -0.1321514696, -0.1582366377, 0.2614580989, 0.2023252249, 0.1690893173, 0.1669682264, -0.0237573013, 0.2382374704, 0.4585056901, -0.0227990970, 0.3382569849, -0.1390056759, -0.3503789008, 0.1992172748, 0.0089150378, 0.2330629528, 0.2044049352, -0.4425399303, 0.2480068207, 0.1992755979, -0.0556370728, 0.2140906155, -0.0215087868, -0.2515704334, 0.0964421704, 0.3405320942, -0.2897285223, -0.1673802733, -0.0027752724, -0.3774470091, 0.0133942394, -0.2274804264, -0.3081506193, -0.4625479877, -0.3880575895, 0.4242281616, -0.2443488389, -0.1976407021, 0.3711283505, -0.1994869858, 0.3891122341, -0.1254545450, 0.1006357074, 0.0476085581, -0.3308193386, -0.1960327625, 0.2845945656, -0.0218360499, -0.0058411858, 0.2630237639, 0.1647533029, -0.2399735302, 0.0508666895, -0.1493502408, 0.0516962558, 0.4851807356, 0.4457383454, 0.4556946456, 0.1429256201, -0.1295717508, -0.3905201256, 0.1989890486, 0.5113916397, 0.3650228977, -0.1563014835, -0.2910772562, -0.2350743860, -0.1566791087, 0.3400887251, -0.3281438649, 0.1476212442, -0.3141608238, -0.3601929545, -0.0685921758, 0.2684312761, -0.3441746533, -0.3416182399, 0.1888034642, 0.1127404496, -0.1961894035, -0.0543663353, 0.2092206031, 0.3332454562, 0.3540204167, 0.0141901178, 0.0907663330, 0.0494874604, -0.2730520368, 0.0459559523, 0.4168009460, 0.2133901566, 0.1414988637, 0.0358920023, 0.0940838531, 0.0163330641, -0.2933737040, -0.0216989741, -0.3436982334, -0.2278310359, 0.2286122888, -0.1911624223, 0.4204893708, -0.1767321229, -0.2243518084, 0.1504321396, -0.4593728483, 0.2621962726, 0.0739166364, -0.2475565076, -0.4387110472, 0.1437954158, 0.4585818052, -0.2098844647, 0.0858414024, 0.1332676113, 0.4503811002, -0.0568706319, -0.1439915299, 0.2667259574, 0.0253284369, -0.3825228214, -0.2027631998, -0.1045765653, -0.1263082027, -0.0278609861, 0.1520002931, 0.1009316742, 0.0697124004, -0.1188029870, -0.0266925134, 0.4082312584, -0.2806047499, 0.2653876245, 0.3311528563, 0.5481100678, -0.4882378876, 0.2447647005, -0.3411977291, 0.0367422476, 0.1553647518, -0.3204849064, -0.3887553811, 0.3074566126, -0.4760600924, 0.1279030591, 0.3543329239, 0.5449529290, 0.1215091869, -0.0027380581, -0.4229004979, -0.0426078923, -0.5708972812, 0.5681164265, 0.1663577706, -0.3228851557, -0.2406102866, -0.0457625315, -0.1875834763, 0.3923373818, 0.1803019047, 0.4362805486, 0.3211266994, 0.2341177911, -0.4082061350, 0.3396617770, 0.0654745549, 0.2194495797, 0.1432854533, -0.2024819404, -0.2300303578, -0.1724903882, 0.3591289222, 0.5493142605, -0.1763810962, 0.5930492878, -0.2976481020, -0.0101957126, 0.2495142967, -0.4845208228, 0.4967817068, 0.4240066111, 0.2132642269, -0.0425073467, -0.1910542399, -0.5339332223, -0.3441003561, 0.1278683990, -0.2405610979, 0.1517054588, 0.4764445424, -0.1065402105, -0.2905197442, -0.4190222323, -0.1229913160, -0.3750388920, -0.4203109741, 0.0742707253, 0.1336845905, 0.5129371881, 0.1541173160, 0.0843337774, -0.3843047619, -0.0486156084, 0.3340409994, -0.4001113474, -0.6369370818, 0.5551211238, 0.2310132235, -0.1556768864, 0.1140294373, 0.2546570897, -0.2081685364, -0.1008600146, 0.0411615819, -0.3587384522, -0.5071831346, 0.1033654287, 0.0002166658, 0.4282678664, 0.3763566911, -0.6182780862, -0.2925077379, 0.6760380864, -0.2031720728, 0.1857125908, -0.1797239482, 0.1972805858, -0.4146172404, 0.0117858155, 0.2150024325, 0.3676876426, 0.3777745664, -0.1492952555, -0.1686566770, 0.3726051748, -0.4672814310, 0.5514262915, 0.0711913407, 0.1142042130, 0.1653401107, -0.2314669639, 0.2480609715, 0.2785397768, 0.4010049403, -0.2748635709, -0.4900767803, 0.4112683535, 0.3380999267, -0.0370930955, -0.1483999789, 0.4113386273, 0.1782134473, -0.2744304538, 0.2361414731, -0.1645021439, 0.1837734431, 0.1353527009, -0.3776545525, 0.0576753430, 0.2512177825, -0.3923631907, -0.1638840884, -0.0825629458, -0.3932071328, -0.1868808717, -0.2442429960, 0.2373716682, -0.0879963785, 0.1390787661, -0.2836049795, -0.0024970863, 0.1777736098, 0.1951737851, -0.3588047624, 0.4103372991, -0.2077736706, -0.4067085683, -0.4510146976, -0.4744952619, -0.2133396715, 0.3866729736, -0.2106477767, -0.3312055171, -0.2578673661, -0.0629078969, 0.3816436529, 0.5608008504, 0.0063646692, 0.4218224287, 0.4373105466, -0.3994207084, -0.1606037915, 0.0869176611, 0.2549889982, 0.1375381500, 0.0577000417, 0.2170325667, 0.2532663643, 0.3132436872, 0.5880199075, 0.0368806906, -0.2329761535, 0.4091090262, 0.1591524035, -0.0837208405, -0.3473229408, -0.2817135751, -0.1077171192, -0.2462772280, 0.3470384479, -0.2556410432, 0.2665565312, -0.3451637626, 0.0001726897, 0.4203563929, -0.0827738941, 0.1735371351, 0.3499060273, -0.4128106534, 0.2012281120, -0.3745424151, -0.2016467303, -0.4000755548, 0.0479396582, 0.0276456960, 0.2247628570, 0.2774875760, 0.2606927454, -0.4045920670, 0.0447265692, 0.0834584385, -0.3825025260, 0.2701921463, -0.1552973092, -0.2573710680, -0.1726907939, 0.5035380125, 0.0697981119, -0.1293585896, 0.3403968513, -0.3045799136, -0.4923045337, -0.2412437648, -0.2231923193, -0.0312042888, 0.0255056154, 0.3850045502, 0.2155024856, 0.0504245944, -0.3902001977, 0.0650321692, -0.0633316562, 0.0575684458, 0.1028450653, -0.2350358069, -0.4820338786, 0.2280574739, 0.1417496353, 0.4561615884, 0.1896582991, -0.4692793787, 0.3091574311, 0.4639947712, 0.3810770512, -0.0958056152, 0.1690317988, -0.1548900008, -0.3218952119, 0.0687082112, 0.0516582355, -0.0387735069, 0.2875330150, -0.1957273036, -0.0449698418, -0.2179902643, -0.3141337335, -0.2274438739, 0.4012602866, -0.2544502020, 0.2797637880, 0.1614610404, 0.0309490133, 0.1521795690, 0.2193669975, 0.3510705233, 0.3485973179, 0.1936849803, -0.2566913664, 0.0724707991, -0.0613853931, -0.0023738516, -0.0004027718, 0.1456171721, 0.0966729149, 0.3662746847, 0.3557881415, -0.0132551612, -0.2287525535, 0.1319004893, -0.1112436876, -0.3929364383, 0.2766718268, -0.3650535345, 0.2418221682, -0.2606114745, 0.1556433141, -0.0785602555, 0.3252574205, 0.0171821229, 0.3440714478, 0.3093696535, 0.2560403049, -0.3901076913, 0.1178158596, 0.1073806807, -0.3740883768, 0.1511870325, -0.2098845840, 0.1206129044, -0.0867914185, -0.0933742225, -0.2370771915, 0.1495479196, 0.3095035553, 0.2056853622, 0.3411107361, -0.3418119550, 0.1595429927, -0.3098835647, 0.2625110149, -0.3476259410, -0.0831381306, -0.4022589922, 0.1948962808, -0.3794299960, -0.3269080818, -0.3385368288, 0.0464050360, 0.2418908477, 0.0318007618, -0.3319526017, -0.0411216319, 0.0181397218, 0.0586977303, -0.1009342596, -0.1514273286, 0.1182816029, -0.4534464180, 0.3346585631, -0.1380469054, 0.0773051009, 0.1778226644, 0.0002501410, -0.3976000249, -0.2288182527, 0.2069467306, 0.2314239144, -0.0376599021, -0.0848455280, 0.1154456362, -0.0991220474, -0.3190094233, -0.0883257538, 0.1577927470, -0.3047330976, -0.4083333910, -0.0050263088, -0.0065545477, -0.1356724352, 0.1714416444, -0.2978156507, 0.0764261484, -0.3913599253, 0.0788615495, -0.2063656002, -0.2594353557, -0.2420165986, -0.2090880275, -0.0130938711, -0.3471777141, 0.2198798507, 0.0498816408, 0.2762274146, 0.0370672308, -0.1288898438, 0.2748778462, 0.1644228548, 0.1393365413, -0.3809573650, -0.1663807184, -0.2606298029, -0.3675230742, -0.0164737962, -0.2645665109, -0.0566416346, 0.0148684513, -0.1805152893, -0.0016986884, 0.3269058168, 0.0080359429, -0.2229183763, 0.2555058897, 0.1160640791, -0.0453372672, -0.2841482162, -0.2048801780, -0.1462238878, -0.1797082722, 0.0778329372, -0.1191041172, 0.1593383253, -0.1244906858, 0.0001927587, 0.3456258476, 0.3607196510, -0.2396975905, -0.1022630781, -0.3695652187, -0.1181874499, 0.3791623712, -0.4048904181, 0.1148078516, 0.3105476797, 0.3338080943, 0.1015836447, -0.1970547736, -0.0448954292, -0.1637835503, 0.2001283616, -0.0090986276, 0.2562045455, -0.4364693165, 0.0952422693, -0.0317468271, 0.2527694106, -0.2798253298, 0.0009977858, -0.0030269951, 0.1520794481, -0.0432977788, 0.3548413813, -0.2976412475, -0.0144556323, -0.2366246432, -0.3516362607, 0.3105864823, -0.2491272986, 0.2659732103, -0.4586611688, 0.0905377865, 0.1296492368, 0.0009716036, -0.1868989021, -0.2205789089, -0.1929403096, -0.2755607069, 0.3613379896, 0.0004412694, 0.3746888638, 0.0667063296, -0.3981052637, 0.3543334901, 0.1977025121, 0.2587817907, -0.2759628892, 0.4278835356, 0.3319895864, 0.0218157414, 0.0521007963, -0.0005764546, 0.0196883008, 0.1663017273, 0.2146622837, -0.2617638409, -0.2446071506, -0.3538959324, -0.1486148983, 0.4062727690, 0.2915416956, -0.0222662762, 0.1739144921, 0.1069492549, -0.1895065457, 0.0540599972, -0.1149629876, 0.2447699606, 0.1725500375, -0.3964529932, -0.3525158167, 0.3406299949, -0.0356962718, -0.3818898201, 0.3079048097, -0.0239611454, 0.2746555209, -0.0572136119, -0.0049590287, 0.2635866106, -0.2587612271, -0.2615844607, 0.0275375713, 0.0977218375, -0.2240319997, -0.3713030219, 0.0936639607, -0.3710671961, -0.2341835946, 0.0491038375, -0.1249979809, -0.0019281410, -0.0000506910, 0.1644639820, 0.2004347742, 0.1003784612, 0.1677032113, 0.2434459925, -0.3743665516, 0.2281212658, -0.2498899549, -0.0510685481, 0.0241729952, 0.0890834704, -0.1231562570, -0.4203995466, 0.3218055367, 0.1860592365, 0.2569780946, -0.4366450012, -0.0611900873, 0.1087429374, -0.3519859314, 0.3994610310, -0.0518391095, 0.0874806345, -0.2347489148, 0.0028191884, 0.3923499882, -0.1997113526, 0.1065371558, 0.2035321444, 0.1024345383, 0.3110797703, -0.3193719387, 0.0756992102, 0.2888951898, -0.2056843340, -0.1114624739, -0.2451960146, 0.3196630478, -0.1354278773, -0.1025949791, 0.2709536850, 0.3723192811, -0.2119040638, -0.3598811328, 0.3802120984, -0.0704315901, 0.2008645087, -0.4660392404, -0.2957736254, -0.3725786507, -0.2928989530, -0.2242812961, 0.0720360801, -0.3528608978, 0.3482997119, 0.2470710129, -0.0020231113, -0.2838843763, -0.3060857654, 0.0466519110, 0.1306522489, 0.2747931182, -0.1383055001, -0.1555353403, 0.4347456396, 0.1379173994, 0.0981222317, -0.0820815489, 0.0442418382, -0.1589335799, -0.1697099805, 0.1747512072, -0.0875917897, -0.1741016656, -0.2769221961, 0.2277686894, -0.0921794251, 0.1639820337, -0.3213537931, -0.4159793556, -0.1680089086, -0.1525447518, 0.2049887478, 0.2727269828, 0.4569339156, -0.3199068308, -0.2724350691, -0.0012635523, 0.3485282063, 0.3378372490, 0.2132335305, 0.3457238078, -0.1555659920, 0.2923139930, -0.0750423819, 0.3755780458, -0.1852027178, -0.3121551275, -0.1997013241, -0.1863757223, -0.2703143060, 0.3363032341, -0.0032522490, 0.1390307248, -0.3625265360, 0.4172595143, 0.1444500685, 0.3286895454, 0.1636069715, -0.2001710683, 0.0181075763, -0.0544718876, 0.2965400815, -0.1312927008, -0.0291792676, 0.3910568953, 0.0195328575, -0.1634885669, -0.0348814912, -0.2591330409, -0.4299033880, -0.1514729559, -0.0707890168, 0.3617092371, 0.2581191659, 0.0615322217, -0.3736624122, -0.0776932389, -0.2829537094, 0.0240942035, 0.2073592544, 0.3867848814, 0.0182135254, -0.1061170921, -0.0930427611, -0.0975862890, -0.1364398003, -0.2189516872, 0.2814325094, -0.1601637602, -0.2651014626, -0.3059449196, 0.2532696724, -0.0117496410, -0.2355364859, 0.3013223708, 0.0355969109, -0.1085248664, 0.3506661057, -0.2644003034, -0.3831767142, 0.3465692997, 0.0776202679, -0.1793164611, 0.2908907533, 0.3475433588, -0.3622635007, 0.1900166869, -0.2309386283, 0.1050421000, 0.3794191778, 0.2485479861, 0.0001597382, 0.2581849396, -0.1061164886, 0.0306158531, 0.3690113723, 0.2036188245, -0.2283170670, 0.3908418715, 0.1264872998, 0.2363806814, -0.1026525572, -0.0525943860, 0.0066625252, 0.0590288192, -0.0926787406, 0.2487635463, 0.2793076336, 0.0846872628, -0.3320994973, -0.0969445258, 0.1755975485, 0.3144558370, -0.3595754504, 0.3793348670, 0.0545022078, -0.2598823309, 0.1963157207, -0.0353136249, -0.1300649047, 0.2716271877, -0.3240082860, -0.2375530899, -0.3204514086, -0.2740082741, -0.1654762924, 0.2395978123, -0.1399075687, -0.3087745607, 0.2776559889, -0.0736494511, 0.3478507698, -0.0725547373, -0.1425427645, -0.4136233330, 0.2700075507, 0.0259819590, 0.0251750220, 0.0437186584, -0.3549043536, 0.3559059799, -0.0079636686, -0.4116840363, -0.1847187132, -0.2172006667, -0.0152708786, 0.2849984765, -0.0607941635, -0.1318370104, -0.0762191117, -0.2796173096, 0.1076632813, -0.3601751328, -0.1495247781, 0.3877753913, -0.4424030185, -0.1165943146, -0.2779334188, 0.2115892619, 0.2546600699, 0.3417058289, 0.2809037268, -0.1746013761, 0.1068327427, -0.0758769512, 0.0240315013, 0.1687305272, -0.1913045645, 0.1548567712, -0.1584163010, 0.2043366134, 0.3569633663, -0.0809639692, 0.2173589468, -0.0212449040, -0.3655503690, -0.2411913276, 0.0491364971, 0.1339661926, -0.2489505410, -0.3194480836, 0.3427563608, -0.2523526847, -0.1406543404, 0.1507206261, 0.0349153094, 0.1310790479, -0.1568167359, 0.1894229352, 0.3065881133, 0.2512040734, 0.3433116078, -0.2671615481, 0.1349439025, 0.3361188769, 0.1425571740, 0.0135723110, 0.3729610741, -0.0713097900, -0.2486871183, 0.1251536757, -0.0754007697, 0.4963950217, 0.3470085263, -0.0557710864, 0.4826283157, 0.3232007325, 0.1184283495, 0.6157199740, -0.3145394921, -0.0814201757, 0.7550662756, -0.2566405237, -0.2819391787, 0.4992980361, 0.3653138876, -0.3039069772, 0.2220468074, -0.0158624705, 0.1146453321, 0.3630393445, -0.5031468272, 0.3807816803, 0.0040732063, 0.1183907390, 0.2823595703, -0.0192590524, -0.2250770926, 0.6176012158, -0.0820290148, 0.6923096180, -0.0412556417, 0.5887644291, -0.2645432353, -0.3326422572, -0.0434533618, 0.6235760450, 0.0373894908, 0.2684280574, -0.0297623985, 0.0920537338, 0.2456064671, 0.6236483455, -0.2960923910, 0.6123685837, 0.2551681101, -0.1680667996, -0.0032116799, -0.1993335783, -0.0343794040, -0.3382034898, -0.3642682135, -0.0407625549, 0.0000443533, -0.2740950882, -0.4556531012, 0.2136505693, 0.1773628145, -0.0872098655, -0.4299087524, 0.6453137994, 0.0586358234, -0.2036382407, 0.0255113840, -0.5925264359, 0.0910826102, 0.2063646615, 0.4165276885, 0.0771301910, -0.4548972249, -0.4421801865, -0.0696773380, 0.0449362881, -0.3016134501, -0.2009252608, 0.0273666233, -0.3204280734, 0.0146714384, 0.0597509779, -0.2265506536, -0.3312139511, -0.3352494538, -0.2217425257, -0.1453495324, -0.4222739935, -0.4472097754, 0.3565210104, -0.1859114915, -0.2870248258, -0.1213083416, 0.1530749649, -0.1419285238, -0.1753066182, -0.5266437531, 0.1183878630, 0.1645148844, -0.4339628220, 0.0670517758, 0.2350742966, -0.0850954354, 0.0962048471, 0.4818154573, 0.0197661016, -0.0696885586, 0.2063897252, 0.3033875525, -0.0257697646, -0.0616247542, 0.1893173307, -0.4788839519, -0.0950090215, 0.3964042962, -0.2241210192, 0.3070482612, -0.1956866682, 0.2770451903, 0.0461985581, 0.0005870886, -0.2259029001, -0.0915311277, 0.1061945483, -0.3680969477, -0.1724364311, 0.3631015420, 0.1328640133};

#endif

#endif
