//Numpy array shape [16, 64]
//Min -0.632654666901
//Max 0.756588280201
//Number of zeros 0

#ifndef W2_H_
#define W2_H_

#ifndef __SYNTHESIS__
model_default_t w2[1024];
#else
model_default_t w2[1024] = {-0.1684590429, 0.0439527854, -0.1946411729, -0.3999978006, 0.0905475914, -0.3841783702, 0.0718625262, 0.0187670402, 0.1450771838, 0.3888005018, -0.2620399296, 0.1916095316, 0.3367561996, -0.1095527261, 0.2323863804, -0.4710835218, -0.0819961503, -0.0818992183, 0.3272137344, -0.0508110411, 0.1052572653, 0.2530172169, -0.1066942289, 0.1493198872, -0.0625358373, 0.3229748011, -0.0060035214, -0.2365138680, -0.3265434802, -0.3477753103, 0.2670229375, 0.0191167723, 0.0156737436, 0.2509893179, 0.1391571909, 0.2253383845, 0.1840550154, 0.3802614808, 0.1265154630, -0.3491421640, 0.1769480258, -0.4437796772, -0.2554145753, 0.0137891704, -0.1965591460, 0.1392064095, 0.1260934621, 0.0780133903, -0.1087435707, -0.2544576228, 0.2246608585, -0.3861365616, -0.1533469409, -0.2798007131, -0.0481618941, -0.0915587917, 0.3562708795, 0.3903304935, -0.2299080938, -0.2325349897, 0.4448766410, 0.0040361043, 0.1187807992, -0.1961038560, -0.0656588003, 0.4809837341, 0.0231249146, -0.3434599340, -0.0241315365, 0.0437339209, -0.1163211465, 0.1823528409, 0.1426856369, -0.3207166791, -0.1150688976, -0.1575851738, -0.3097617328, 0.1990174502, 0.1011706963, -0.0972935557, -0.1936651915, -0.2215140015, 0.3134957850, -0.2333867252, 0.0448582433, -0.0552327149, 0.3083124459, 0.3459672630, 0.0005078922, 0.1869886965, 0.1471929252, -0.1538371891, -0.1183091328, 0.0320072807, 0.3932507932, 0.2497194707, 0.3327552676, 0.4558336735, 0.4768438339, 0.0739464313, -0.2921762168, 0.2335001230, 0.2478532195, -0.3600204587, 0.1591531187, -0.2685661614, -0.0221297406, -0.0511203520, 0.1115162298, 0.2533123493, -0.1342088729, 0.1832232624, 0.2384263128, 0.1131364405, -0.2213287055, -0.3759922385, 0.1627376825, 0.1113831177, -0.4361987710, -0.2141807973, 0.1173683181, -0.4254285991, 0.3491258323, -0.0798234567, 0.3321068585, 0.0193453878, 0.4461869299, -0.3083969951, -0.0490624681, 0.1970612258, 0.2678055763, 0.2550143301, -0.1989600807, -0.1164999083, -0.1899015158, -0.4071931243, 0.4186000228, 0.2053943872, -0.4305024743, -0.3357750177, -0.3385055661, 0.4860696793, -0.4103222489, -0.2722591758, 0.1674488783, 0.3102473021, -0.2263240367, -0.0404603332, 0.4218979478, 0.3397561908, -0.3030148447, 0.5854052305, 0.0081780860, -0.4023110569, 0.3836458921, -0.5209535360, -0.1547786444, 0.0766220912, -0.3357471228, -0.5041906238, -0.2147124857, 0.3773683906, 0.0252091028, -0.1945017427, 0.1741061807, -0.0261331685, -0.4545078874, 0.0692619681, 0.1020184979, 0.1317627132, 0.0310072247, -0.0012365071, 0.1387966573, -0.3557620645, -0.0547139868, 0.0623059981, -0.5613868833, 0.0707271099, -0.2068150192, 0.4010885358, 0.4271370471, 0.1032694727, -0.0631834120, -0.1648351997, 0.2193227410, 0.0135165658, -0.3561412394, 0.1734921634, -0.1376862377, -0.1947883070, 0.2473979443, 0.2920208871, 0.1808602959, -0.1930515021, 0.0456881858, 0.2873292565, -0.1212482601, -0.3523068130, -0.3564181030, -0.1937993467, 0.2405137867, -0.4589478076, 0.1003189608, -0.3204424679, -0.0034259800, -0.0694757551, -0.1497875601, -0.3049549162, 0.1481582969, -0.2145498246, -0.6326546669, -0.4609526694, 0.2935569882, 0.0404630415, -0.4084940851, -0.1268973798, -0.2394761741, -0.0400107726, 0.2177025974, -0.4757167399, 0.3254943788, -0.3923971057, 0.0069192192, -0.0842577592, 0.1701108217, -0.5108619332, 0.4644762576, 0.0823071897, -0.2866139114, -0.0558102466, -0.6125621200, -0.3714571893, 0.3617387712, 0.2672415674, -0.0003460952, -0.4049662054, -0.3711566925, -0.1173881963, 0.4767499268, 0.4491864741, -0.3753720522, -0.2384067625, 0.3206041753, 0.2932168841, 0.5409821868, -0.5729851127, -0.3875849843, 0.0566077232, -0.2987847030, 0.1291152984, 0.4366437495, -0.0889533535, -0.1914922148, 0.1835540086, 0.2472027689, 0.4124545157, -0.3991952837, 0.2907620072, 0.0022603387, 0.1940121800, 0.1325003654, -0.1207302064, -0.2740668356, -0.1559721529, 0.2664205432, -0.2494668365, 0.1191588193, -0.3326983452, -0.0718070269, -0.1256072372, -0.5015194416, -0.2995372713, 0.0108674336, 0.0821983069, 0.0957615525, 0.0837568343, 0.0224802904, 0.3107742965, 0.1253024787, 0.3146948516, 0.3163995743, -0.0876048431, 0.4821991622, -0.4583286941, 0.2309705466, 0.2580931783, 0.0655815825, -0.3130944371, -0.1761837751, 0.2416089922, 0.4218290448, -0.1816557199, 0.4270474017, -0.1330571920, -0.4274474978, 0.4532865882, -0.1348520964, 0.1088816598, -0.2050821781, 0.4324739873, -0.1815579832, 0.3632825911, -0.4006258547, 0.5977771878, -0.5681626797, -0.0739187747, -0.2116862088, 0.2887503207, 0.1749303639, -0.1805623472, -0.0489062443, 0.1212358922, -0.2530729175, 0.2821572423, -0.0060890117, 0.4654150307, -0.4788767695, 0.1400196701, -0.1595521569, 0.0024618539, -0.0297810975, 0.3451169431, -0.0369128250, 0.0296627712, 0.2006037086, -0.2836703956, -0.5250518322, -0.0849986598, -0.3160328567, 0.1797916293, -0.4450849295, -0.4730350971, -0.0914050564, 0.0128169786, -0.3933888078, -0.0910925269, -0.4595494866, -0.1379197687, 0.2819935679, -0.0704598352, -0.1866420507, 0.4071670175, 0.2146617919, -0.0233064648, -0.0156641752, 0.1346683204, 0.2204022855, 0.0920533463, -0.2612254620, -0.0188169014, -0.3712118864, -0.4282986820, -0.0265296660, 0.0913137347, 0.3192458451, -0.4737926722, -0.1029392555, -0.4043115973, 0.0126326391, -0.2637643814, -0.0822006688, -0.0293734539, 0.1700651944, -0.0346618146, 0.1813926399, 0.2120503038, -0.0584970117, -0.0351514183, -0.0302663501, 0.0056792866, 0.3697908819, 0.1243530065, -0.2250521928, -0.1836743951, -0.1639972776, 0.2301683277, 0.2908892632, -0.1523734480, -0.1081354842, 0.0697312951, -0.2136648595, -0.0157636330, -0.3153597116, -0.0567222089, 0.1236605272, -0.2658955455, -0.1670794934, 0.3535527289, -0.4162667394, -0.3801817894, 0.1846531630, -0.2999848425, -0.0550700203, 0.0113551999, -0.1479295045, 0.0904591009, 0.1010843292, 0.2943099737, -0.0701449960, 0.3606906831, 0.1627030522, -0.0725629628, -0.3997932971, 0.2012189776, 0.3038079143, -0.3485352695, 0.2999706566, -0.1989448816, 0.1728709489, -0.0299240500, 0.2699010372, -0.2374085337, -0.0118901366, -0.0851751715, -0.2619027197, 0.2810032368, -0.1653848439, -0.0469167903, -0.1391467601, -0.0095703993, 0.1733812243, -0.2730180919, -0.0364843272, -0.1196140870, 0.1834032983, 0.3630619049, -0.1490911394, -0.2072429508, -0.0102725290, 0.2556511760, 0.1477399021, -0.2197847813, -0.0062806285, -0.1298788041, 0.2314658165, 0.0802387595, 0.2882251143, -0.0031650714, 0.1885662675, 0.2534231246, -0.0078496384, 0.3212461770, 0.2126765847, 0.3404828012, 0.1872078776, -0.1533227563, -0.2898412049, 0.1992137134, 0.3389657736, -0.4305763543, -0.1448587477, 0.4613653421, -0.4781074226, 0.0545432344, -0.0488830991, 0.0911937580, 0.2960511744, -0.1662971377, 0.0477678217, 0.2628800571, 0.0069567459, 0.0117091695, -0.2828744352, 0.1872506142, -0.1070565358, 0.2806465924, 0.0237014890, 0.0911529884, -0.3049518764, -0.0083329966, -0.3038448095, -0.3913600147, 0.4066006541, -0.2018232048, 0.2468230426, -0.0438904352, 0.0291011967, -0.2289018631, -0.3098074198, 0.0151935304, 0.0980741531, 0.2279931009, -0.0404115915, -0.3709115386, -0.1047358066, -0.3448956907, -0.4353239834, 0.1562121958, -0.2522016466, -0.0013563838, 0.2728054523, -0.2844614983, 0.0624908768, -0.3635967076, -0.1350512207, -0.1759438366, -0.3823955655, 0.0188812558, 0.3339596093, -0.0787288398, -0.0944671556, -0.1132848114, 0.2823321521, -0.2328654081, 0.1325825751, -0.0548720136, 0.3665201068, 0.0077937618, 0.0068971212, -0.2729471624, -0.0262629800, -0.1691517383, 0.3394452631, -0.1422419697, 0.1622617096, 0.1964588165, -0.0699834153, 0.3502511680, -0.2784180641, -0.1372416019, 0.3902013302, -0.0385970585, 0.1218769923, 0.1619288325, 0.1433694214, -0.1707903743, -0.0039330348, 0.3514697254, 0.1778245717, 0.0627832115, -0.2695362568, -0.1253717840, 0.3149377108, 0.0796904564, -0.0001209496, -0.4162240624, 0.2054558396, -0.0018502309, 0.2921167612, 0.2256629765, 0.3724696934, -0.0243507121, 0.0231677927, 0.0017456047, -0.0318204090, -0.3384709656, -0.1015573218, -0.3398257792, -0.3379069269, -0.1385505646, 0.2262433916, -0.1246986315, 0.2800777555, 0.2508587837, 0.2129657269, 0.1322387457, -0.0653060377, 0.0044848709, 0.2993291914, 0.3815574348, -0.1699755788, 0.1701200157, -0.3349670470, -0.3642611504, -0.4196684361, 0.2433462888, -0.0021509556, 0.3534109592, 0.3691867888, 0.2669092119, 0.1024263948, -0.1750563830, 0.2164123654, 0.4896413684, 0.2611168027, -0.1359624714, -0.1028781757, 0.3389310539, 0.2860806286, -0.3342276514, 0.0484140217, 0.0042144591, 0.1840035617, 0.2036897838, 0.1128778607, 0.1459624618, 0.1153361499, -0.1602930427, 0.2020334452, -0.3898222744, 0.2568255365, -0.2174536139, -0.3452612758, 0.3028377295, 0.1854796857, -0.3543586135, -0.2365793884, -0.1047417521, -0.1025293171, -0.0989115983, 0.4060856700, -0.1411691606, -0.2170214355, -0.1855244339, 0.2946746051, 0.0195806604, -0.0215427931, 0.0077705672, 0.2503070533, 0.1192090884, -0.3541902602, 0.2872636616, -0.3208433986, -0.0756210461, -0.1307226866, 0.3215711415, 0.0271178205, -0.1371496022, 0.1557423919, -0.2331103534, 0.2454427928, -0.2014619708, 0.0265237968, -0.2693383992, 0.3921900094, -0.1405162960, -0.3893687427, 0.3413906395, -0.0615390651, -0.4283319712, 0.0791199282, 0.0999401957, 0.1853087544, 0.0980356410, -0.3502402008, 0.2310974002, 0.1732142717, -0.2224055678, 0.3481808305, -0.2274387330, -0.0245877244, 0.2441026419, -0.1869446039, -0.0419132784, 0.0516016297, 0.0329494812, -0.1624185294, -0.0012823582, -0.1386913359, -0.1665196568, 0.1409243047, -0.2539724708, -0.3913727105, 0.2283327281, -0.0273072850, 0.3876062334, -0.3160940707, -0.3372297585, 0.2583642602, -0.1263871789, -0.0033385954, 0.0185084511, -0.0613460243, -0.2330972105, -0.0583291724, -0.3240956962, 0.2075509727, -0.1279236674, 0.2815403938, 0.1515114158, -0.1406056136, -0.1050392389, 0.1175891832, -0.0133550689, -0.1952099651, -0.0822596401, -0.2827672064, 0.1584306359, -0.1096868217, 0.1883703768, 0.3024906814, 0.2535466552, 0.1687773019, -0.0705898255, 0.2272962183, -0.3755249977, -0.3501950502, -0.2935653031, -0.0254913531, 0.0020682600, -0.1940732300, 0.1478157043, 0.0258829333, -0.1093880087, -0.0072366442, 0.0724188611, -0.3791859448, -0.3532906473, 0.3199545741, 0.0535895489, -0.2202135026, 0.1468895525, -0.1829580218, -0.1837025881, 0.2929340601, -0.0409603082, 0.0895332098, 0.3460596204, -0.4237305224, -0.3872511685, -0.0269430075, -0.1213131323, 0.3369290531, -0.2128650844, 0.2291952074, -0.3323145509, -0.1597168893, 0.2556948960, -0.4684793949, -0.0224919301, -0.0901893303, -0.0631913021, -0.0522547439, 0.2851068377, 0.2946440279, 0.0509784520, 0.2309540361, 0.1557642668, -0.3002594411, -0.3346034586, -0.2830775678, -0.0559240766, -0.2562049329, -0.1460940391, 0.1969912946, 0.2711037099, 0.1290598959, -0.3224482536, -0.2342412025, -0.0902148187, -0.0228374340, 0.2635955215, 0.1610854268, -0.1011197940, -0.2068491131, 0.1117089763, 0.0066387164, 0.1579664499, 0.3325074613, -0.0585505329, -0.3146507740, -0.3534884453, -0.1667359769, -0.2129318416, -0.2071794569, 0.2942763865, 0.2096340507, 0.3300345838, 0.3362201452, -0.1798264682, 0.1589069813, -0.0693136826, -0.2828113437, 0.1332409084, 0.1494733542, 0.2445695996, 0.0465940498, -0.0738172680, 0.1296707839, 0.1463044733, -0.2827899456, -0.4492173493, -0.2139573097, 0.2798790634, -0.0734423101, 0.1831955761, 0.4401835799, -0.0019178982, -0.3069500327, -0.0195775386, -0.0428527035, 0.1301984340, 0.3025465012, 0.2845511734, 0.1903283894, -0.3144238591, -0.1475997716, 0.0935883299, -0.2582956553, -0.0029898633, 0.3672985137, -0.0317834727, 0.1886143237, 0.4093312323, 0.0378812030, 0.3718904555, 0.3798268735, 0.3797473907, 0.1103639677, -0.3323590159, -0.3580367267, -0.2285844386, -0.0794788226, 0.2846554816, 0.2739498913, 0.3175723255, 0.2933582664, 0.2999289632, 0.0050118766, 0.2065636665, -0.1278456450, 0.1063311249, 0.4207305312, -0.0479762554, -0.1370797455, -0.2472411096, -0.1745548844, -0.1836617440, -0.4121844471, -0.0006274268, -0.3932716250, 0.1222220808, -0.2859677970, -0.0215151701, 0.4057295322, -0.0006512326, 0.2515446842, 0.0387652367, 0.1936825812, 0.1582671553, 0.0696745515, -0.3745860457, -0.2777639031, 0.0320756435, 0.0172240045, 0.1918814778, 0.2472270727, -0.1620783359, 0.1546647549, -0.0587158687, -0.0465371236, 0.1655935496, 0.3249213099, -0.3534943759, -0.2869134545, -0.3413304090, 0.2592020333, 0.2482568026, -0.4372953475, 0.2876890004, 0.2299383134, -0.1706197709, -0.3239581287, -0.0713164359, -0.0012176759, 0.2869827747, 0.1799836010, -0.0003704394, 0.3300840259, -0.0004470695, 0.3755842149, -0.0800434649, -0.3147613704, 0.1540456712, -0.2207219452, -0.2683029175, 0.4013458490, -0.0553211495, 0.2248340398, -0.3357403576, -0.0816399306, -0.1239637285, -0.2638997138, 0.2085161209, -0.2819557786, -0.3455707431, -0.1393633485, 0.3556911945, -0.1459582895, -0.3441340923, 0.2633545995, 0.2944351733, -0.0234983340, 0.1799470782, 0.2044918388, 0.0737560242, 0.1855538040, -0.0777024999, -0.3060076237, 0.3022532165, -0.1055889577, -0.1899646670, 0.2129213065, 0.3155685961, -0.3726367354, 0.1818719357, 0.4575378001, 0.0442527644, -0.3351387084, 0.0200420264, 0.6103701591, 0.0016968077, -0.4902042150, 0.6837154627, 0.0957319438, -0.2740198076, -0.3123598099, -0.0502750352, -0.1640197039, 0.6111132503, -0.1812354773, -0.0008460223, -0.5094659328, -0.3709223270, -0.4722845852, -0.4357406199, 0.1724260747, 0.4080235660, -0.0491696410, -0.0960251838, -0.0258045308, -0.5548744798, -0.1799777001, -0.4969755113, -0.0097895041, 0.0198057946, 0.0472478345, -0.5773594975, 0.0395517536, -0.5967970490, 0.5854570270, -0.2500435114, 0.3860140443, -0.0659444034, -0.4280116856, 0.4609028101, -0.1820208877, 0.0510426871, -0.2526050806, 0.2549822628, 0.0118494136, 0.3354445398, 0.7261368036, -0.1274156570, -0.4378832281, -0.4920941889, -0.6121050119, -0.0125673385, 0.4484100044, 0.1025200561, -0.5426206589, 0.2656791210, -0.4381805658, -0.1480193138, -0.2601158023, -0.2165471315, -0.4766856134, 0.5953906178, 0.7565882802, 0.5175073147, -0.1822692454, -0.3271553814, 0.2556557953, 0.1299158335, -0.3619709015, -0.1197110787, 0.1647780091, 0.0598983169, -0.3381041884, 0.2897610664, -0.0456345379, 0.0942351446, -0.4066614807, -0.2984131575, 0.4654154778, 0.0342711173, 0.0412089378, -0.0752082318, -0.3220119476, -0.2438649386, 0.4130024314, 0.3399789035, -0.0840227008, -0.0036993651, -0.0010054114, 0.2259643674, -0.1189675853, 0.0313417315, -0.0985153690, 0.3252107799, -0.3220697343, 0.0045114472, 0.4905675650, 0.1644519269, 0.3344791830, -0.3024860620, 0.4121995270, 0.0098418100, -0.2533618510, -0.4565372765, -0.2474221289, 0.1328927577, -0.2178250700, 0.3408506513, -0.0351793729, -0.0656053275, -0.2294731736, -0.0797970816, 0.0008642416, -0.4432938099, 0.2411153615, -0.2919273376, -0.2491516024, -0.4164108038, -0.0707571283, 0.4316210449, -0.3647156656, -0.2154592723, 0.4028451741, 0.2409995198, -0.1789886951, -0.0390540287, -0.3817130029, -0.5507740378};

#endif

#endif
