//Numpy array shape [64, 32]
//Min -0.568709075451
//Max 0.409409672022
//Number of zeros 0

#ifndef W5_H_
#define W5_H_

#ifndef __SYNTHESIS__
model_default_t w5[2048];
#else
model_default_t w5[2048] = {0.0646431148, 0.1106325909, -0.1535737514, 0.0594635680, -0.0051893131, -0.0442455448, 0.0753606111, -0.0639931783, 0.1509258896, 0.2183972299, -0.0324618071, -0.0124386195, 0.1196288913, 0.0206947792, -0.0060474914, -0.0136083355, -0.0000396060, -0.0240112133, 0.0893983394, 0.1283340454, -0.1275417507, -0.1212102249, -0.0666899085, -0.1322170943, 0.0716806650, -0.0245214738, -0.1478992254, 0.1349617839, -0.0817011446, 0.0041769701, 0.0974271446, -0.1450757831, 0.0972138867, 0.1640688032, -0.0093618939, -0.0681243613, 0.0376603715, 0.0663314834, -0.0043692593, 0.1104885563, 0.1157792732, -0.0796237886, -0.0375458971, 0.0931565389, -0.2806976438, 0.0020833700, -0.1168019921, -0.1358659118, 0.0327941701, 0.0604434088, 0.2960482240, 0.2452945113, 0.0719068795, 0.1292295009, 0.0760060027, -0.0072196200, -0.0063262619, 0.1074188054, 0.1518499851, -0.2654079795, 0.0280513093, -0.0494322479, 0.0447452925, 0.2009517699, -0.0840695500, 0.1476547271, 0.0281340983, -0.1873859763, 0.2233329713, -0.0016788319, -0.2912240326, 0.3124214709, -0.1366669685, -0.0884045437, -0.0844087899, 0.0236874837, 0.0206019040, -0.0466754064, 0.0088523077, 0.0273621958, 0.1079094112, -0.0896653384, -0.0571834147, -0.0941860005, 0.0081195729, -0.0782178268, -0.0083806086, 0.1174428537, -0.0016917594, 0.2497267127, 0.0930081457, -0.0500841327, 0.1480547935, 0.2444965243, 0.0210549347, -0.0613104813, 0.2152861059, -0.0823861584, -0.1191718057, 0.0569807217, -0.1221336126, 0.1127143800, 0.0914746746, 0.0367132388, -0.0621981695, 0.1129060909, 0.0057296776, 0.2364999503, 0.0067742839, -0.0978380740, -0.0002358484, -0.1937136352, 0.1349392384, -0.0715723485, -0.1631644666, -0.0684727803, 0.1363871545, -0.0647017881, 0.0822944343, -0.1605578661, 0.0002946144, 0.0208550207, -0.0237837564, 0.0329662822, -0.0500706546, -0.0233973283, 0.1942813098, -0.1742081493, 0.3006267548, 0.1084211767, -0.1854770780, 0.0219718292, 0.1573446542, 0.1792943776, -0.0309882928, 0.2435899973, -0.0308096819, -0.0650994033, 0.2125549167, -0.0585515536, -0.2470053583, 0.2261487693, -0.0805650577, 0.1270768493, 0.1460511982, 0.0578930341, 0.1577629745, -0.0224651750, 0.0192589685, 0.2215368003, -0.0205709431, 0.0372337922, 0.0996344835, -0.0248481687, 0.0595744252, 0.2330783904, -0.1615271121, 0.2568523288, -0.1557172537, -0.0983294919, 0.0874479562, -0.2567864954, -0.0205708519, -0.0606389306, 0.0364037715, 0.0833302364, 0.2712765932, -0.2335208505, -0.0420772508, 0.0155361276, -0.1135168225, 0.0772704855, -0.0453288332, 0.2783375382, -0.0026687640, -0.0457537845, -0.1038737074, 0.1203859523, 0.0857677981, -0.1234794483, 0.0004367489, 0.1654121131, -0.1048486382, -0.1123032272, 0.0085321078, 0.0841002092, 0.1994568557, 0.2602905929, 0.2004964054, 0.1582741588, 0.0128927790, 0.0770789385, -0.0740687773, -0.4187095761, 0.1636622101, 0.1888429224, 0.0922229141, 0.0961495191, 0.2674216926, -0.3355437219, 0.1574426889, -0.1719487607, -0.0429560393, -0.1358049214, 0.1365558654, -0.2018295974, -0.1167595834, 0.1405129135, -0.1399239302, -0.0432926379, -0.1256873012, -0.3023740053, -0.2092753947, -0.0603133179, -0.0182170942, -0.2087113261, 0.2412313819, 0.2643654943, 0.0075850654, 0.1233986244, -0.0051714093, -0.0039016029, -0.1174255833, 0.0505616255, 0.0013779593, -0.3403105736, -0.0388037972, 0.0615962818, -0.3547843993, 0.1754813194, 0.0661062524, -0.2365054786, 0.2549312413, 0.0206965506, 0.4094096720, -0.3032077849, 0.0339132585, 0.2776551545, 0.0021847622, 0.0571905710, -0.0231440272, 0.2602650821, 0.0703700334, -0.0804605260, -0.1741632521, 0.3261305392, -0.2282715440, -0.2187165320, 0.0377980545, -0.3272482753, -0.1890715808, 0.3859924674, -0.1675440669, -0.0493739396, -0.3500029147, -0.1233728305, -0.1598642170, 0.0452995859, 0.2110613883, -0.2351271063, 0.0281816274, 0.1870813817, -0.0946936309, 0.1012778431, 0.0423545502, -0.0515863076, 0.0621119253, 0.1916746944, -0.2469585538, -0.1318127364, -0.0977695882, 0.1356048435, -0.0034371607, 0.1203911453, 0.0009623098, 0.1536137611, -0.0240982473, 0.0251912102, -0.1854967177, 0.2453169376, -0.0417792760, 0.1318624318, 0.0956234336, 0.1716639698, 0.1234451234, -0.0633336902, -0.0414157733, -0.1054335833, -0.1207161769, 0.1200259924, 0.0711788312, 0.0020329938, -0.0196268428, -0.0090314690, 0.1662333906, -0.1925848126, 0.1589110792, -0.0509695709, 0.0317377672, 0.0829176083, -0.0151508916, -0.0035663571, -0.0243990347, -0.0000777541, -0.0060434146, -0.0755305737, 0.0474899001, -0.1547959596, 0.0656745136, -0.1488186568, -0.0857465565, 0.1675079167, 0.0628568679, 0.0297256950, 0.0026660126, 0.1626405269, -0.1453931034, -0.0845360160, -0.0605120286, 0.0931566432, -0.0020824792, -0.1928661317, -0.0598105751, 0.2206675857, -0.0482794009, 0.1305133998, -0.1254650354, -0.0316752531, -0.1847209334, 0.1251327544, 0.1810359210, -0.0978186578, 0.1434038281, 0.1105461121, 0.1030514687, 0.0110282805, -0.0948466286, 0.0009948737, 0.0000932936, -0.0571398474, 0.1438453645, -0.0078418236, -0.0475156792, 0.2038333863, 0.1144391075, 0.0528078601, -0.1362840980, 0.2204351425, 0.1030348018, 0.2233844846, 0.0523708500, -0.0048396047, 0.0038918396, -0.2276379317, 0.0787965059, 0.2309709042, 0.0364899449, 0.1181371287, 0.2871657014, -0.3014635742, -0.1070815697, 0.1466987431, -0.0187977739, 0.0062960568, 0.0880913064, 0.1797749400, 0.1040635630, 0.1757139713, 0.0276518520, 0.1573388875, 0.1669612527, -0.1032962650, 0.1723430008, -0.0085823089, 0.0038196759, -0.0993798152, 0.1679965854, 0.0009995205, 0.1399416029, 0.0606322065, 0.1701737493, -0.0103867119, -0.0228739139, -0.1374033391, -0.1103255078, -0.1008728370, -0.0083688078, -0.0266256053, -0.0515477732, -0.1613515466, 0.0000000926, -0.0056877802, 0.0699059367, -0.2164643705, 0.0208225958, -0.0538805090, -0.1588499099, 0.0741742104, -0.0208395980, 0.0647333786, -0.2039301693, 0.1616176665, 0.1303162277, 0.0206912197, 0.1848621815, 0.0337257981, -0.0651788041, 0.2194903493, 0.1026070565, 0.1531525552, -0.0007091115, 0.0295451414, -0.1008150205, -0.1006993353, 0.0345468596, 0.0753391385, 0.0459353663, 0.0686910227, -0.0173467025, 0.0945162624, 0.1340409368, 0.0199180376, 0.0001771341, 0.3373506665, 0.1685648412, 0.0964187831, -0.0401088558, 0.1676808894, -0.1056979299, 0.0838404968, 0.0003642229, 0.0468764827, 0.1672566831, 0.2638737857, 0.1330561042, 0.1371054351, 0.2040598840, 0.2223640531, -0.3306827247, 0.2091978043, 0.2077332288, -0.2099440098, -0.2536050379, 0.1688618511, 0.0226495769, -0.0624240190, -0.0779071525, 0.2731903791, 0.0063233390, -0.0758613274, 0.2025447339, 0.0743267760, 0.0800124779, 0.0393559635, 0.1655889750, -0.2312177122, -0.0646596178, -0.0287351310, 0.1788478941, -0.0426115803, -0.0644583255, 0.0320310034, -0.2673605382, 0.0413009189, -0.0000743199, -0.2124076188, -0.0216137115, -0.1575161964, -0.0004381911, -0.1325026304, -0.0631269142, -0.0560807772, 0.1419587284, 0.1683750004, -0.1169322804, 0.2005646378, -0.2551027834, 0.0783783123, 0.0999285728, -0.3180497289, 0.0185425915, 0.0890141129, -0.1045029834, 0.0615899190, 0.1588825285, 0.1636366248, 0.0344692059, -0.1263518482, 0.0306268781, 0.0412595831, -0.1417089701, -0.0217107069, 0.0713541359, 0.0050338828, -0.0017266045, 0.1170474961, -0.0529693849, -0.1033910215, 0.0347804576, -0.2162197530, 0.1848608404, 0.1666015983, -0.1303633451, 0.1222131327, 0.1694160998, 0.1579665244, 0.1155465096, 0.0173625853, -0.0548249781, -0.1255186647, 0.1169917211, 0.1513387710, 0.1686105579, 0.2147724926, -0.0284716580, 0.0646121874, 0.0682193264, 0.1898480207, 0.0002748905, -0.0792781413, -0.1306018978, -0.2170610577, -0.1111099422, 0.1645092964, 0.1436347365, -0.1453200579, 0.1173220277, -0.1091951653, -0.0885293782, 0.0194017123, 0.1597215384, 0.0042378306, -0.0480001718, 0.0988865644, 0.1201055199, -0.0065547554, -0.1919268519, 0.2121884972, 0.0131476447, -0.0179882366, 0.1849869937, 0.1619871855, 0.1400365680, 0.2274161577, 0.0679331794, -0.0083286660, -0.0604201704, -0.2063131928, 0.0018932462, -0.1257034093, -0.1180235222, 0.0449894406, -0.0200515091, -0.0803490207, -0.0506522991, -0.0002523101, -0.0131990537, 0.0544172451, -0.0378400795, -0.1203366742, -0.0002424891, 0.0106800478, -0.1579261124, -0.0003593271, 0.0414774381, -0.1298315227, 0.1461529732, 0.0217867009, -0.0831431895, -0.1756039113, 0.1839675456, 0.0012986368, 0.0001390643, -0.0037046154, -0.1527092457, 0.2140118033, -0.2162236720, -0.3594707549, 0.1208481938, -0.0064143343, 0.0228580572, 0.2039728463, -0.1103165075, -0.2651609480, 0.0872997493, -0.0083086146, -0.2329439819, -0.1408129334, 0.0857911035, 0.0170728788, 0.1958879530, 0.0054956484, -0.3394726515, -0.1329134554, 0.0304251611, -0.3056378365, -0.1789190173, 0.1591570675, 0.3544928133, 0.0449024364, 0.2265672684, 0.0976117253, 0.0762121901, -0.1107109562, 0.2873627841, -0.2013758123, 0.0019358795, 0.2174524367, -0.1028141528, -0.0005352912, 0.0470771454, 0.0438589752, -0.0166558512, -0.1437858343, -0.0242265668, -0.0590468310, -0.1447300613, -0.1100807413, 0.0015757837, -0.0598036200, 0.2313725352, -0.1678497940, 0.0785129592, 0.1173598841, -0.2080351859, -0.0015397646, -0.0873358175, -0.1667697430, 0.0098980488, -0.0333963074, 0.1201289818, -0.0472478047, 0.2676513791, 0.1347515732, 0.0935974196, 0.2065557986, 0.0906941295, -0.1388405710, -0.1070967838, 0.2525126934, -0.1915158480, -0.1236823574, 0.2718226016, -0.0128587475, -0.0713508055, -0.0628853887, 0.0354229584, 0.2474393994, 0.2729137540, 0.2741860449, 0.1274188906, -0.2100225836, -0.0857035890, 0.0263236016, 0.0971447006, -0.0753108487, 0.0890376344, -0.2890779078, 0.1071137413, 0.0322483182, -0.0191086791, -0.0211336855, -0.0199289061, 0.0695659667, 0.0950951353, -0.1031161547, 0.0001878901, 0.0236210730, -0.0405877344, 0.2259355187, -0.0640836954, -0.2464468777, 0.1103621200, 0.1385491639, 0.1391000897, 0.1162023395, -0.1756111830, 0.0143939126, -0.0101505592, 0.2457612306, -0.1203525960, 0.2076300681, -0.0272277519, 0.0852663219, 0.0252178386, 0.0822343603, 0.0255385451, 0.1737630665, 0.0598950200, -0.0479876734, 0.1521634161, -0.1074671671, -0.2598285079, -0.2186528593, 0.0358085595, 0.1032052040, 0.0616336763, -0.0162004624, -0.1769366413, -0.0843596160, 0.0032802168, -0.0269538071, 0.1422925293, -0.3196792305, -0.0401730537, 0.0104625495, 0.0011630319, 0.1659591347, 0.0361606963, -0.1775702387, 0.1207041964, -0.0291434415, 0.0040865252, -0.1090285406, -0.0917331129, -0.1941836774, -0.0456682630, 0.0050987476, 0.1062043980, 0.1294488311, -0.0211572368, 0.0001884720, -0.0006404459, -0.0002760092, -0.0416618958, 0.1728627384, 0.0790091977, 0.0402057096, -0.1198752075, 0.1186091974, 0.0832573920, -0.0095695844, -0.0676585361, 0.0423727669, -0.1592490375, 0.1050024480, 0.1612226516, 0.2475836426, -0.0307123102, -0.0360408388, 0.1137001216, 0.0463819169, 0.0813842341, 0.0145286517, -0.0676479489, 0.1659958661, -0.1317759901, 0.2269505262, -0.0266964287, -0.0797367245, -0.0859883577, -0.2870740294, 0.2599724233, 0.1714298725, -0.0716940090, 0.2046842426, 0.0927850455, 0.2239735574, -0.1420485824, 0.2019246519, -0.1675651073, 0.0695972145, 0.0090269800, 0.0394312516, 0.2788395584, 0.0520522185, 0.0035073615, 0.2112365812, 0.1126369238, -0.0081284288, -0.0967592970, -0.0494979136, -0.0209254939, -0.0589865260, 0.0711660758, 0.0283497497, -0.1709811687, -0.0036418117, 0.0577861741, 0.1154984832, 0.0057992730, 0.2014565170, 0.0062245289, 0.1672275215, 0.0335820466, 0.1502384096, -0.0239180904, -0.0178184398, -0.0049018320, 0.0146493297, 0.2020269483, 0.1381728351, 0.1167504340, 0.0210523419, 0.0848617032, 0.2102721184, 0.0429808535, 0.0990315452, 0.0003055224, -0.1408098638, -0.0553122945, 0.0234606434, -0.0197484754, -0.1067008227, 0.0530375428, -0.0474790186, 0.2201781273, -0.1299021244, 0.1268409491, -0.1074940637, -0.0298886206, -0.1120184585, -0.0042435066, -0.0545102730, -0.1814393848, -0.0887621045, -0.2238896340, -0.0053425636, 0.0302364361, -0.1731149852, 0.0200006384, -0.0125847235, 0.3879011273, 0.0813889727, 0.0470915996, 0.2522717118, 0.2001902312, -0.1440930218, 0.0012771975, -0.0894436687, 0.1791164130, 0.1075692698, 0.0194060151, 0.1645220220, -0.1301311851, 0.0656277761, 0.0536961928, 0.1723987758, -0.0062158345, 0.2619722486, 0.0188296232, 0.0542177372, -0.1536941528, 0.1819836348, -0.1285369992, -0.0939243212, 0.0811624452, 0.1591930538, 0.1021995544, -0.0262539592, 0.0939654335, -0.0688231885, 0.0840090513, 0.0607696511, -0.1181543022, 0.1735065877, 0.1175273135, -0.1601297408, -0.1113641113, 0.0089599406, 0.0562573783, -0.0359659642, 0.1434412897, 0.0679268911, 0.0659336150, -0.5433880091, 0.0399495400, 0.0474742129, 0.2136185318, -0.0899334997, 0.2877857983, -0.3755396307, -0.0699994788, 0.1372296959, 0.1360594928, -0.0428362451, 0.2133444697, -0.2198735327, -0.0890641361, 0.0372283310, -0.5687090755, -0.4325564206, -0.2514668107, -0.2862811685, 0.1088707298, -0.0418798588, 0.1721035540, -0.0128852073, 0.0764271021, -0.0044605909, -0.0500823371, -0.1004557386, -0.0921343341, 0.1286683381, 0.0215089247, -0.2296304554, -0.1541940123, -0.1695642769, 0.0756346062, -0.0509139709, -0.0012362342, 0.0136134457, -0.0027795373, -0.1416337341, 0.1974736154, 0.1968552321, 0.1977932155, -0.0269379392, -0.0929214954, -0.0873236880, -0.0263227057, -0.1476469189, -0.0811790973, 0.2108742148, -0.0294509977, 0.1085485965, 0.1340710968, -0.0027846815, 0.1231866702, 0.0135691781, -0.1310214549, -0.1870913804, -0.1093186885, 0.1429595053, -0.0135237267, -0.0112727964, -0.1213784814, -0.0958629996, -0.0532008633, 0.0111031225, 0.0322128162, -0.0838927776, 0.0603682287, -0.1348909587, 0.2341445237, -0.0157482717, -0.0838985965, 0.0569466241, 0.0008131529, -0.1000756547, 0.0003655551, 0.3010681868, 0.0003595190, 0.1365287304, 0.1035147160, 0.1449688971, -0.1242422983, -0.0890558958, -0.0562502332, 0.0001225149, 0.1045501605, 0.1491759866, 0.2033863962, -0.1067553908, -0.0177809298, 0.0802397802, 0.0524206609, 0.2332274914, 0.0844369754, 0.1334805191, 0.0768370405, -0.1281988174, 0.0697053894, -0.0352984406, -0.1191519648, -0.1181256920, 0.0338775292, 0.0020137511, -0.0206957106, 0.1120806187, -0.0897183120, 0.1151605546, 0.0015176574, 0.0715438798, -0.1049856544, 0.1858109534, 0.0113530019, 0.1026481539, 0.0954545289, -0.1354076862, 0.1032263637, 0.2261377722, -0.0973431170, 0.0921432897, -0.0514462851, 0.2170457840, 0.1218343079, -0.0115182754, 0.0925097689, -0.1291304529, -0.0210632645, 0.2152281851, -0.0556597002, -0.2227788121, 0.1953228265, -0.0105541321, 0.1663527340, 0.0275255982, -0.0086434679, -0.2181975096, -0.0905958638, 0.0296132825, 0.1209588125, -0.1608611494, -0.1135578528, 0.0017635272, -0.0949170440, 0.2588103116, -0.2888870537, -0.2693386376, -0.2429636717, -0.0093017202, -0.2248065323, -0.0559741110, -0.0581204817, -0.2039691508, 0.2712029517, 0.2305681407, 0.0503588207, -0.0877163783, 0.0027910939, 0.0933483168, 0.0002842782, -0.2294626981, 0.1508906335, 0.1008964404, -0.0219639819, 0.2329849750, -0.0149073619, 0.2344549447, 0.1077038944, 0.1694491506, 0.1888737231, 0.1318164021, 0.2720385194, -0.1427717656, 0.0689406320, 0.0175989233, -0.0458941869, 0.1375252157, -0.1674248129, -0.0640366897, -0.0145899514, -0.1165780872, -0.0057409406, 0.1841149032, 0.2043728083, -0.1796613932, -0.1144239604, 0.2200761437, -0.0003306787, 0.1313709319, 0.1009238139, 0.1619624197, 0.1402230263, -0.1354790032, -0.0272547286, -0.0000760688, 0.1513042897, 0.0431072451, 0.1344713122, 0.2101030797, 0.0808061808, 0.0596532449, -0.2895390391, -0.1295409799, -0.2871184647, 0.1413107216, -0.0058843619, -0.2132415324, -0.1330129802, -0.2191844732, -0.2948510051, -0.0317436606, -0.0052658278, -0.0039426866, 0.0102082174, -0.0200503059, 0.2216093987, -0.2728451788, 0.0128147351, 0.0249590222, 0.1287333369, -0.1166489571, -0.0450342596, 0.0770410448, 0.3430368006, -0.0284870900, 0.2326013148, -0.1408001035, 0.0621655956, -0.0748738945, -0.3380687833, 0.2244959623, -0.1707923710, 0.0938352123, 0.2220762074, 0.3497615159, 0.2743531764, 0.1871979982, -0.0097733382, -0.0757858083, -0.0661858022, 0.2189449072, 0.2556225657, -0.1874509752, 0.1878717393, 0.0178065524, 0.0766865313, -0.1694544405, -0.1790061593, 0.1487824172, 0.0823216811, -0.0998969823, -0.2600854337, -0.1602657437, -0.0060167541, 0.1123974100, 0.0367018059, -0.1703023314, 0.1156218722, 0.0297169723, -0.0005731881, -0.2103917450, -0.0139820017, -0.0739825889, 0.0085120369, 0.0008280781, 0.2227347791, -0.2774869204, -0.2627242804, 0.1806669384, 0.0497337021, 0.0603847764, 0.1200419739, 0.1780937314, -0.2748930454, -0.1774666011, -0.1490324736, 0.0180959105, 0.0724202245, 0.0093968464, 0.0147356736, 0.1174348667, 0.3226943612, 0.1638347208, 0.0002182641, 0.0662704259, -0.1044961810, -0.0238976423, -0.1273614615, 0.0087532979, -0.1616566628, -0.0162433833, 0.0396872163, 0.1330543756, -0.0574729852, 0.1240384802, 0.1746871024, 0.2335244268, 0.0522555970, 0.2459415644, -0.0066575832, 0.2012505680, -0.0348843224, 0.0034228249, 0.3057161570, -0.1125715971, 0.1738622785, 0.0034844116, -0.1171353459, -0.0002254000, -0.0704780221, 0.1663396806, -0.1619765908, 0.2668105960, -0.0042162696, 0.0347035639, -0.1736535132, 0.0276611317, -0.1366459131, 0.1243934780, -0.0418471918, 0.0622909330, 0.0032516508, 0.0893878788, 0.0014758518, -0.0013967585, 0.2055257857, -0.0576612763, 0.2352446318, -0.2444905490, 0.1173260435, -0.1708314568, 0.1552569568, 0.0526023917, -0.1352647990, -0.1838104874, 0.0300611258, 0.2249666154, 0.1093899310, 0.1418932080, 0.0287053399, 0.1366668344, 0.0022755587, 0.2253457010, 0.1348511726, -0.0306791030, 0.3069444597, -0.0010231565, 0.1669964343, 0.0597012714, 0.1751155555, -0.0573421717, 0.0857732669, 0.1472389847, 0.1181051284, -0.4166312516, 0.0751302019, -0.1733166128, 0.3597055078, -0.1235550866, 0.0201547164, -0.3497673571, 0.3276968896, -0.3842088282, -0.0159584880, -0.2153321207, 0.2271299362, -0.1279350370, -0.1393188685, -0.0889711007, -0.4464220107, -0.2385615408, -0.1248049736, -0.0160170663, 0.1202604696, -0.0699523687, 0.3351828158, 0.0237631071, 0.2360827774, 0.1658479273, 0.1056399718, 0.0797448978, -0.0521407425, -0.0890770033, -0.0727773905, -0.0054564732, -0.0656567961, -0.1436321884, -0.0360841081, -0.0989728868, -0.1133103371, 0.0482129008, 0.2170398682, -0.1478006989, 0.0001200683, -0.2020146251, 0.0668352991, 0.3000486493, 0.0001032751, 0.0751027316, 0.0420439839, 0.1115925983, 0.1049102172, 0.1888934672, 0.2620003223, 0.0002848392, 0.0478670709, 0.0834903196, 0.0905754566, 0.1981617361, 0.1721560657, -0.1536253542, 0.1736032069, 0.2024360001, 0.2729138136, 0.1219652593, 0.0001283865, 0.3252452314, -0.0002786109, 0.0670930073, -0.1012203097, -0.2400341183, 0.1572523713, -0.1862732917, -0.0675049722, 0.3214402497, 0.1146287769, 0.0029117791, -0.0998502821, 0.0957459658, 0.0089496514, -0.0411083810, 0.1727741212, 0.1473834813, -0.0587422438, -0.1163593978, -0.0341941267, -0.0417308733, 0.0283319484, -0.0437020473, 0.2664487064, 0.1255721450, -0.1732784510, 0.0286393613, 0.2605449557, 0.0791965798, 0.0832777992, 0.0700772703, 0.0815107003, -0.0981137753, -0.0218151417, 0.0730504990, 0.1467814595, 0.0079911277, 0.0512551293, 0.1656550616, -0.1040920019, -0.0977664962, 0.0513844080, 0.0787465200, -0.1469926834, -0.2020909339, 0.1894614697, 0.1128594503, -0.0161931477, 0.0438218080, -0.0648945943, 0.0139436256, 0.0624207892, 0.2065146267, 0.0204545744, -0.0026388301, 0.1607867479, -0.1561781168, 0.0126505746, 0.0672738105, -0.2197543234, -0.0323969200, -0.1282884181, -0.0455509834, 0.0273563135, 0.1961536407, -0.0198498368, -0.0232297033, -0.2012246251, -0.0020598380, 0.1008356884, -0.0942416415, 0.0000523802, -0.1544476002, 0.0004373213, 0.0932731256, -0.1558149755, -0.0492497124, 0.0562774725, -0.0038548079, 0.0764350519, 0.1055997685, -0.0611544773, -0.0444475412, -0.0277047884, -0.0060113259, 0.0291862302, -0.0003922757, 0.0582833104, -0.0360868685, 0.0002953107, -0.0425105989, -0.0000108775, -0.0699658841, -0.0761262402, -0.0117018428, -0.0002710818, 0.1395081282, -0.0814937502, -0.0278803594, -0.0814422965, 0.1754895896, 0.1781433374, -0.0000479691, 0.1960556209, 0.0743791834, -0.0908784941, -0.0017063308, 0.0197925773, -0.0170340613, -0.0119345300, 0.0306485742, -0.1235808805, 0.1427454799, -0.0048649008, 0.2994818687, 0.1619529575, 0.2230518311, 0.1842623502, 0.1780087054, 0.1028844267, 0.1419446915, -0.0650771037, -0.1463741213, -0.1048162878, 0.1772213876, 0.2465971261, -0.0675974861, 0.1286159158, -0.0570236593, 0.0377315916, -0.0128913801, 0.1914000511, 0.1220982894, -0.1654195637, 0.1995416880, 0.0222586915, 0.1344555765, 0.2171521634, 0.0243564080, 0.1432000697, -0.1538019925, -0.2016402632, -0.0260550082, -0.1244436428, -0.0941788107, 0.0417217240, 0.1893078089, -0.0413252264, -0.1992110908, -0.1531393826, -0.0461058207, 0.1779740453, 0.0087996237, -0.0343305692, 0.0741841123, 0.2170819342, -0.1169009581, -0.0249013230, -0.1573980004, -0.0645295158, 0.1954575479, 0.0749351308, 0.2142731696, -0.1013937443, 0.2818445563, 0.0753488615, 0.0781578273, 0.0038014001, -0.0553653836, -0.0218372717, -0.1536225826, 0.0521797277, 0.2172388583, 0.0738829598, 0.0769052804, 0.2015635818, -0.0174479652, 0.2483325601, 0.3074130118, 0.0309236161, 0.0070591713, 0.0700353235, 0.1088140085, -0.0705709159, 0.0827491134, 0.0368364975, -0.1971209943, -0.1664568335, 0.0982721895, 0.1793602109, -0.0965444297, -0.0669326559, 0.0028115371, 0.0371555835, -0.0306447614, -0.0197919477, 0.1123863608, -0.3008866906, -0.1199956164, 0.1966315061, 0.0942592546, 0.1947438419, 0.3037549555, 0.1089405268, -0.2490765452, -0.0843197107, 0.1250460446, 0.1195673198, 0.1588616371, 0.2231681645, -0.0595644154, 0.0766994506, 0.1578105986, -0.0808202103, 0.2086981535, -0.2253100425, 0.0105178263, 0.1822694540, -0.3728840947, -0.1896886081, -0.0001889323, -0.0968380198, 0.0295171626, -0.0027429166, -0.0597237423, 0.2046096623, 0.2152768224, 0.1659403741, -0.0239871033, 0.2169622332, 0.1492532641, 0.0538435765, 0.3605327010, -0.0817110091, 0.0621511526, 0.2482911199, -0.0518205613, -0.0751601383, -0.0612949580, 0.1476417482, -0.1862868965, 0.2716042101, -0.0365020558, -0.0004935854, 0.0371028893, 0.1445792913, -0.0630401820, 0.1298041940, 0.2601224184, -0.1876989156, 0.1255254149, -0.1138562784, -0.0733002797, -0.0221993681, 0.2788925767, 0.0153762940, -0.1427417845, -0.2911545038, -0.1492238045, 0.1885181814, 0.0938474908, 0.1721426249, 0.1853892654, 0.1996322125, -0.2167348713, 0.3039154410, -0.1856400818, 0.1477186233, -0.0975761935, 0.1447372735, -0.1269927174, 0.0702307746, 0.0063560833, -0.4501328766, 0.0016475453, -0.3193843067, -0.3507288098, 0.2058671713, 0.0994289368, 0.2609082460, 0.0415609665, -0.0167641621, 0.0955892131, 0.0596108623, -0.1528446227, -0.1215612441, -0.0740689561, 0.0038393377, 0.0657173246, -0.0868774429, -0.1209992096, -0.0809722841, -0.2933957279, 0.3079171479, -0.1884362251, 0.0005152869, -0.1087472513, 0.0497914590, -0.0005509782, -0.1958328038, 0.0009620868, -0.0157078579, -0.0863356292, 0.0706907883, -0.1306068748, -0.1333969980, -0.2304018289, 0.0381288342, -0.2678009570, 0.1252730936, -0.1052508429, -0.0636679232, 0.1747253537, 0.0057064039, 0.1111069247, -0.0229236726, -0.0048177666, 0.1955164671, -0.1130782813, 0.2868701220, 0.3269272745, 0.1341623813, 0.1022421271, 0.2113849521, 0.0051621706, 0.0184388701, 0.1341479868, -0.1801743507, 0.0249302723, -0.1909487396, 0.0712794438, -0.1666459143, 0.0913176835, 0.1640689224, 0.0492014028, -0.0695325807, 0.0587565638, -0.1461995095, -0.2017801404, -0.1332623959, 0.1031396165, -0.0046570892, -0.2776711285, 0.2274794281, -0.1484938711, 0.1039398313, 0.0676474944, 0.1561454535, -0.1309088171, 0.0700067133, 0.2259983420, 0.1031782180, -0.1308155209, 0.0592575744, 0.1982737482, 0.1349886507, 0.0500022098, -0.0718000606, 0.0332701392, -0.1127828807, 0.2225443125, -0.1890248656, -0.1149343997, 0.1113061234, -0.0685598478, 0.2120256722, -0.0601811260, 0.0323349610, -0.2417141348, -0.0621576682, -0.0268605128, -0.0223105550, 0.1480318010, 0.0182436146, -0.2283716947, -0.1065745354, 0.1942940801, 0.1118734553, 0.1764021665, -0.0712009445, -0.1640214175, 0.0203287601, 0.0157091208, 0.0662349612, 0.1626286656, 0.2190310657, 0.1081965864, -0.1258333325, 0.1891156435, -0.3006316423, 0.0812670439, -0.0239116028, 0.2591442168, -0.1475955397, 0.0482311100, 0.1828380376, -0.0835889056, 0.0948256105, -0.0437171198, -0.2143858820, 0.0099736983, 0.3398403823, -0.1316684484, 0.2254356295, 0.1470989883, -0.2035869211, 0.0656421334, 0.0190853011, -0.0852967575, -0.2047700435, -0.0737777948, -0.0244589802, 0.0178685524, -0.0899928510, 0.0777309239, 0.1194341481, -0.2614129186, -0.1799371690, 0.1272992194, -0.1959143877, 0.0583278984, 0.1093626469, -0.0001791216, 0.1394902617, -0.3032436371, 0.3011788130, -0.2207351774, -0.3018426299, 0.1113890931, -0.0863470435, 0.2645293772, -0.0000619639, 0.0023378311, -0.1135746017, 0.2455920577, 0.2863470018, -0.0938875452, 0.0546827465, 0.2853192091, -0.1602353007, 0.1031856984, 0.0857823193, 0.0353880078, 0.2040450424, 0.1273702234, 0.0763284564, -0.1234681681, -0.0394803546, 0.3719876409, 0.0790096223, 0.0256435964, -0.0832921788, 0.0862612873, 0.1524029672, -0.1238385290, -0.0768886656, -0.1293164343, 0.0287833940, -0.1262536198, 0.1565020978, -0.2034041733, 0.1312814504, -0.1454263180, 0.0714628845, -0.0419495665, -0.0745926946, -0.2345862091, 0.1109015718, 0.0851362273, -0.2004439980, -0.2886098921, 0.0519282073, 0.1297336966, -0.0406476632, 0.1435670406, 0.1013760343, -0.1217563897, -0.0074980091, -0.1149933711, 0.0271655358, 0.1510517746, -0.0370814204, -0.0033553687, 0.0912354290, 0.1438546926, 0.0273999218, -0.1457211375, 0.0284153223, -0.1184580699, 0.1439629942, 0.0897075087, 0.2842579186, -0.1060336158, -0.0315921083, 0.0815752372, -0.0645924360, -0.0242762156, -0.1082526371, 0.0924590752, 0.0183717106, 0.1391486526, -0.1735799611, 0.0759247839, -0.0761561319, -0.1488678902, -0.0628481954, 0.0001470554, -0.0140877003, 0.0980435982, -0.1671902835, 0.0512711182, 0.0544445068, -0.0751133412, -0.0284796208, -0.0769741386, 0.1822492778, -0.1121813208, -0.1577704251, 0.1177158207, 0.0606649294, -0.0563227199, -0.0568147935, -0.0405198410, -0.1588818282, -0.1298239678, -0.1071372926, -0.1105840206, 0.2202022225, 0.1047350019, -0.1013311669, -0.0142112365, -0.2427315712, 0.1155997068, -0.1035062745, -0.1166852117, 0.0795598030, -0.0306901466, 0.1865399182, -0.1107815802, 0.0006891597, 0.1254926920, 0.2681834698, -0.0365788192, -0.0627877265, 0.0173764601, 0.0470273830, 0.0742130876, 0.0485393405, -0.1750812531, 0.1191089451, -0.1229026616, 0.0845691338, -0.0281834137, 0.1769125313, -0.0381841473, 0.0087920092, 0.0732023492, -0.1135983616, -0.0001636195, -0.0937720388, 0.1959928870, 0.1074639559, 0.1065492183, 0.1760292947, -0.0624354184, 0.0120556988, 0.1631956398, -0.0430787280, -0.0350049436, 0.1426246166, 0.1858549714, 0.1408342570, -0.1737353504, 0.2428341061, -0.0071262410, 0.0996306315, 0.1587501913, 0.0198194403, 0.0047825174, 0.0603040121, 0.1755754948, 0.1193521544, 0.2095807791, 0.1703398079, -0.0922112763, 0.0843915120, 0.1245685890, 0.0066416441, -0.1713254303, -0.0449967906, 0.0265313517, -0.2131817639, 0.0431165658, -0.0615410134, -0.2553904653, -0.0099117272, -0.0270303506, -0.2727505863, 0.1279702038, 0.0838462338, -0.1061689407, 0.0220327992, 0.2797315717, 0.1203055233, -0.1331458241, -0.1279759556, 0.2393892407, 0.0303252526, 0.1281457990, 0.1106594801, 0.0668679923, -0.1220556423, -0.0103247557, -0.1087764576, -0.0209592879, -0.0809503719, 0.1876197904, -0.0995713100, -0.0404388234, -0.0964659825, 0.0745486245, -0.0867406428, -0.0527259968, -0.0521220714, 0.1880639941, 0.1849754602, 0.1717154086, -0.0442011580, 0.0633702055, 0.0206652656, -0.0252695419, 0.1550319493, 0.0723100230, -0.0151632670, 0.2313034385, -0.0051224418, -0.2008459270, 0.0767226219, 0.0373896919, 0.0794474632, 0.0079057859, 0.0622586422, -0.2318004668, 0.0911462381, 0.1582099348, -0.1663905084, 0.0962729529, 0.0873033181, -0.1415791065, 0.1652791947, -0.0265756492, 0.0008394265, -0.0498696268, 0.1601737589, 0.0031905205, 0.1766735166, 0.0066150650, -0.1634043008, -0.2618740201, -0.1829415858, -0.0679558069, 0.1553708464, -0.0383937135, 0.1908256859, 0.0750688463, 0.0359271094, 0.0787570700, 0.0905069485, -0.1260620952, 0.0030339488, 0.1012237519, 0.1503524035, -0.1758728474, 0.1756457090, -0.1071546376, 0.1012034938, 0.2077700645, -0.2137362659, -0.0845652819, 0.0344705470, 0.0636334196, 0.0742337778, 0.1014480665, 0.1192632690, 0.1215350255, 0.0230866671, -0.0532401130, 0.1120246947, 0.2221109569, 0.0662153587, 0.2107617855, 0.1458450705, -0.0153490938, 0.0185997430, -0.0486518480, -0.0413311794, -0.0674689487, 0.0758870989, -0.0438618362, -0.1627784818, -0.0909567699, -0.0084377695, 0.1295518279, 0.0062914975, 0.0482201315, -0.0047547612, 0.1904540360, 0.0623890385, 0.2161692530, 0.0301197581, 0.0947507620, 0.0314972214, -0.0220682323, 0.2388771176, -0.0147750806, 0.3124919832, 0.1500754207, -0.2195051014, 0.0708252862, 0.0796382427, -0.0078468621, 0.3590723574, 0.1906767339, 0.2852140367, 0.1418863535, -0.0879626349, -0.0318595916, 0.0572023429, 0.2949005663, 0.2300516963, -0.2150691450, -0.1917887926, 0.0209601149, 0.0160159059, 0.0199691430, -0.0039879996, 0.0290277284, 0.0408293456, 0.0110144820, 0.1285756677, -0.0892459899, -0.0881833509, 0.2095730305, -0.0847599581, 0.1758842766, 0.0527497455, 0.1407495588, 0.0062392657, -0.0387382805, -0.1505839080, -0.0937210321, 0.0726154670, -0.0801591501, 0.2358080149, 0.2500886023, 0.0664201379, 0.2022075057, 0.1142598838, 0.1947131455, -0.2988280952, 0.2519949973, -0.0080486285, -0.3312433362, -0.1046973616, 0.1489533782, 0.0539226867, 0.1731082052, 0.1542102396, 0.1021717563};

#endif

#endif
