//Numpy array shape [32, 32]
//Min -0.652382135391
//Max 0.484927207232
//Number of zeros 0

#ifndef W8_H_
#define W8_H_

#ifndef __SYNTHESIS__
model_default_t w8[1024];
#else
model_default_t w8[1024] = {-0.0628201216, 0.0617232323, -0.2096465975, 0.1943346411, -0.1542456597, 0.1764905304, 0.0035571039, 0.0002435612, 0.1992761493, 0.1683180183, 0.1618538946, 0.0269205868, -0.2143597752, -0.0212711636, 0.3312955499, 0.0632945299, 0.0420536846, 0.2901225984, 0.1562014371, 0.2857879400, -0.1642027050, 0.2771215439, 0.0792661235, -0.1483041495, 0.3792611063, -0.0000861123, 0.0040799477, -0.2359049916, 0.0547469556, 0.0662653446, 0.1668839008, -0.0304810535, -0.3855633438, 0.0942218825, -0.0730831772, -0.2803346217, -0.3577319384, 0.1883931011, -0.0571934059, 0.0000953216, 0.2784212232, 0.0626650304, 0.0197030082, 0.3218839467, 0.2817923725, -0.2301544398, -0.1961381435, 0.2244278044, -0.4095644653, 0.0532533787, -0.0002186758, 0.1390587240, -0.1572060138, 0.2853658497, 0.4050365984, -0.3071969748, 0.0798056647, -0.1475531757, 0.0332325324, -0.0743165016, -0.1514947563, -0.1610718369, 0.0517874882, -0.2810042202, -0.0179937966, 0.0147069618, 0.2764075994, -0.0478058197, 0.1774947196, -0.0013336488, 0.2278801948, 0.2081244290, 0.1408560723, -0.3171550333, -0.1214146763, -0.1305169165, -0.1254782379, -0.2862196565, -0.0007305235, 0.2948931158, 0.1546604335, -0.1302616894, 0.0117948502, -0.1879103035, -0.2662079036, 0.3156442642, 0.0711385831, 0.2125016302, 0.0974003524, -0.1223773137, -0.2466883510, -0.1337187886, 0.1416483372, -0.1460371912, -0.0933530107, 0.1849375218, -0.0404101424, 0.0070359842, -0.2466749400, 0.0294171255, 0.1648730785, 0.0000245168, -0.0204917956, -0.2789434791, 0.1859113872, -0.2583269775, 0.3579454720, -0.3126470745, -0.3403056264, 0.3915356100, 0.2005006522, -0.0317442641, 0.1356965005, 0.0379252285, 0.1254624724, 0.2721454501, -0.0554530770, 0.0833104178, -0.0393024758, 0.2858915031, 0.0159177613, -0.0000805225, -0.2210955918, 0.0279164463, -0.2203869075, 0.1357719600, 0.0052689454, -0.0692103431, 0.2982017994, -0.1609957218, 0.1340944022, 0.1118105203, -0.2483071834, -0.1058936119, -0.0106134862, 0.0248238035, 0.1600759774, -0.1521682441, -0.1140552908, 0.1553676128, -0.1852706224, 0.0177734755, -0.4440802932, -0.1399521083, 0.3552174568, -0.0597124137, 0.0612357371, -0.4949818850, -0.1145032570, -0.2378141284, -0.2840960026, -0.1839125007, -0.5411130786, 0.0000000860, 0.1290751249, 0.2113618106, 0.0174660999, -0.2633504570, -0.2046289593, 0.4096649587, 0.0066122338, 0.0137137603, -0.0312681496, -0.1123189256, 0.2445222884, -0.0009939311, -0.0632740632, -0.0910781026, 0.1226479784, -0.0206303131, 0.3418458998, -0.1987509727, -0.3491468132, 0.1733953059, -0.0829558596, 0.1798609495, -0.0476760902, -0.0784309059, -0.0749791116, 0.1589101553, 0.1730245203, 0.0244220495, 0.2337238044, 0.0462361015, -0.0959270373, 0.1483216733, -0.0616755411, 0.1142809615, 0.1687833667, -0.0061975266, 0.0138039337, 0.0470588803, -0.0136799673, -0.1139379069, -0.1639228314, 0.1274802387, 0.0522839129, -0.2632564604, -0.1594099700, 0.0034221509, 0.1853442937, -0.0307081025, 0.0395444930, -0.0532091036, 0.2437656671, 0.1320938915, -0.2450389415, 0.2838082016, 0.1102759391, -0.0843131542, 0.3060845733, -0.2164708674, 0.2975701988, -0.0354828723, -0.0182066355, 0.1494073570, -0.1024382412, -0.0729614273, 0.0327105783, 0.3271389604, -0.1663179100, 0.3041060269, 0.1291675717, 0.0099717900, -0.4445526600, 0.1597916931, 0.0425697342, -0.0937831849, -0.3474382162, 0.0569287054, 0.0123276338, 0.0529452041, -0.0095875273, -0.4015673399, 0.2421701252, 0.4050437808, -0.1159572154, -0.2089050412, 0.3511869311, 0.1552487761, -0.3697029650, -0.0759329200, -0.0305618122, 0.1164522320, 0.0821373835, 0.4096064866, 0.1089883000, 0.0024363720, 0.4849272072, -0.0289295968, 0.1350619793, 0.0303746983, -0.0381683931, -0.0414747894, 0.0652754977, 0.0815661326, 0.1086141840, 0.0007242161, 0.1005070955, -0.0560971573, 0.1737476140, -0.2460698485, 0.3546124995, 0.0009942290, -0.1714360863, 0.0543648377, 0.0509939641, 0.3383737206, 0.1747996062, 0.2721737027, 0.2136463672, -0.2307114303, 0.1536293477, -0.4407080114, 0.0841470882, 0.2262457013, -0.0001235242, 0.0109865703, -0.3151361644, 0.1235713288, 0.0425831676, -0.0000034883, -0.1861024499, 0.0842028782, -0.2942087352, 0.3169144988, 0.1893757284, 0.3191967309, 0.0181671251, 0.2330294102, 0.1593384147, 0.1768992245, -0.0462160297, 0.0481812879, -0.0934397355, 0.0274688713, -0.2462562919, -0.0339045525, 0.2029498219, -0.2148661762, -0.1911646575, 0.1999166459, 0.2581172585, 0.1897556633, -0.2583697736, -0.3016386628, -0.1709249318, -0.0621677637, -0.0423977971, -0.1421068013, 0.0811993107, 0.4244764149, -0.0113063073, 0.2049481869, -0.2300354391, 0.1046698466, -0.1718693525, -0.1342091262, -0.1058917865, 0.0519342124, -0.2011848837, 0.1313387007, -0.2208371162, -0.3448017240, 0.0750551000, -0.0114871738, 0.2163903713, -0.2265625447, -0.0670148134, -0.1160585806, 0.2787276804, -0.2080572248, -0.0924547687, -0.0258640237, 0.3308651745, 0.0353129171, -0.3646010458, -0.0393734686, 0.1596876085, 0.4299184382, -0.2191072106, 0.0389679745, 0.2364635170, 0.2949666679, -0.0958277285, -0.0000997252, -0.1376866698, 0.4150073230, -0.3655689061, -0.0795038566, 0.1133542955, -0.1485952288, -0.0248071644, 0.0014494510, -0.0552394427, 0.0920375735, 0.0433386639, -0.1504312903, 0.1085068136, 0.0000310884, 0.1347706467, 0.3051090240, -0.1142793298, 0.0676706210, -0.1692041159, 0.2428821474, -0.1222043633, 0.1607631296, -0.2014116198, 0.3866352737, -0.0520844348, 0.0227509756, -0.1178031862, 0.1031132638, 0.2895950377, -0.4328697324, 0.2256920338, -0.0669079795, 0.2833877802, -0.0016627705, 0.3962470889, -0.0048544738, -0.1445297450, -0.1494624019, -0.0512899943, -0.0000056439, -0.2535806298, 0.1146741882, 0.0844189674, 0.0000230802, -0.0723756105, -0.0721129477, 0.3297624588, 0.0094752507, -0.1090519056, -0.3863270581, -0.1797187328, 0.2510742545, 0.0000186088, -0.3098286688, 0.0151661811, -0.1507050395, -0.1010133699, 0.0000231175, 0.0000136657, -0.1381101012, 0.2316258550, -0.3584337533, 0.0000090379, 0.0000180919, 0.1092445552, 0.2102612853, 0.0759318396, -0.0928829610, 0.0000412625, 0.0494816378, -0.0408825912, -0.0000538763, -0.2081452906, -0.0791734681, 0.0946506560, -0.0000439996, 0.0001666587, -0.0000233934, 0.1207291335, 0.0404235199, 0.0741060153, -0.0002273373, -0.0167514328, 0.1582792550, 0.0473706536, -0.3348390758, -0.0403051302, -0.1114938632, 0.3191151917, 0.2162872702, 0.3051836193, 0.2544735074, 0.0949569717, -0.1897902787, -0.0323461592, -0.0000898826, -0.0112313330, 0.0572670810, -0.3100978732, 0.0385921970, 0.2648528814, -0.4296523333, 0.0416304655, 0.0014763656, 0.2940380573, 0.0179587118, 0.1589688510, -0.0299164765, -0.0069393055, -0.1560225785, -0.1999797672, 0.1024500281, -0.3445134759, 0.0414655767, 0.3553582132, -0.2267966270, -0.0452762060, -0.2075701356, 0.2283102423, -0.0549647287, -0.1825731248, 0.0979730561, 0.3304911256, -0.2307716459, 0.1935311109, 0.2968743145, 0.1847448051, -0.0000831553, -0.0081919972, -0.1253966540, 0.1589753181, 0.1151838526, -0.0734321028, -0.2132147402, -0.0813189372, 0.0169276614, 0.2397588938, 0.0128972093, 0.2167827338, 0.0884562582, 0.2226744443, 0.2474196404, 0.1839812845, -0.1522145867, -0.1074372977, 0.0142699974, 0.2111622393, 0.1227338612, 0.1397337317, 0.2862392366, 0.1967907250, -0.1135302112, 0.1507616639, 0.1983029246, -0.1006260365, 0.0426059701, -0.2272312492, 0.2274167240, -0.0086899325, 0.0512089618, -0.0960428715, 0.1073028743, -0.3289017081, 0.2164389342, 0.0649526641, 0.3558604419, -0.6068308949, 0.1547885090, 0.0560340621, -0.6154142022, -0.0562512539, 0.1883593500, -0.2713386416, 0.0000387743, -0.1669475734, -0.5835544467, 0.2257090062, 0.3977739215, 0.3394914567, -0.2326583266, 0.0193093885, -0.0719549134, -0.6044474840, 0.0895160288, 0.2398600727, 0.4176341593, -0.2728348672, 0.3690217137, 0.2615981102, 0.0448712148, 0.3427832425, -0.0000164258, 0.0765514076, 0.0287020374, -0.0181107763, 0.2128426135, 0.1681726426, 0.0909202918, 0.3055912852, -0.0117290933, -0.2141591311, 0.2204014659, 0.2981144488, -0.1339535117, 0.1582458466, 0.0001078640, 0.3847618401, 0.1084401459, -0.1410171986, -0.3830871284, -0.0007868768, 0.2210896462, -0.1668072790, -0.2157385796, 0.2118664533, 0.1343992352, -0.0690542161, 0.2678535879, 0.3392347693, -0.0473013520, 0.1939956397, -0.2007071376, -0.1362464875, -0.0022934566, -0.0465568081, 0.0146946041, 0.0616362952, 0.3784219325, 0.0817059949, -0.4045877457, 0.0005182741, 0.0031956618, -0.1248983741, 0.1572954953, 0.0561303645, -0.0663649961, 0.0997596458, -0.2200499028, 0.1611681283, 0.2859298587, 0.1320866197, -0.2267318070, 0.2656852901, 0.0529041626, 0.3723991513, -0.0210132115, 0.1871235818, 0.1319021285, -0.2081501782, 0.3707739711, -0.0836275965, -0.1807587296, -0.1847931892, -0.2363220453, -0.0700330138, -0.0038726048, 0.3282125294, 0.0048886524, 0.1875683218, -0.0616584197, 0.2192980498, -0.0835468546, -0.3339605331, 0.1106538698, -0.0649176389, -0.1460302472, -0.1226041988, 0.2564113736, -0.1621879637, 0.0422840752, 0.0864782557, 0.0386283770, 0.1305405200, -0.0006615286, -0.1577974111, -0.0891873762, -0.1018031389, -0.2114067674, -0.3634507656, 0.2240775377, 0.0332306474, 0.3603999317, -0.0017654930, 0.1533260196, 0.1573254615, 0.1752361804, 0.3221192956, -0.0001113006, -0.2007149160, -0.2645624280, 0.2576842010, -0.1571742594, 0.1173375547, 0.1547122896, 0.0936949626, -0.0725225434, 0.0280305687, 0.2456255257, 0.1804796457, -0.2236525416, 0.1987786144, -0.1770779341, 0.0055750730, 0.3048094809, -0.0159157831, -0.0879763290, 0.1980602741, 0.1444590241, -0.2339957058, 0.0203051865, 0.1088995934, 0.2220052034, 0.0056900666, -0.1318616420, -0.0769020543, 0.1405387819, 0.0713598803, -0.2678401470, -0.2457965761, -0.0000441662, 0.0254042093, 0.0017132660, 0.0076712244, 0.0000964506, -0.1632701308, -0.1154482141, 0.0885115117, -0.0287296120, 0.2084627151, -0.0848141611, 0.1306093633, -0.0190871861, 0.1883617193, -0.2728148699, -0.2804444134, 0.3562503457, 0.0722008049, 0.1995296627, 0.0841348991, 0.2482107431, -0.0583640486, 0.2482732683, 0.2460573316, 0.1708960980, 0.2449102700, 0.1971458346, 0.3285010755, 0.1918580681, 0.0448870026, 0.2951573431, -0.1673976481, -0.0008896288, -0.0309490655, -0.1362019777, 0.2903559804, 0.0946481079, 0.1246597767, -0.1794613451, -0.0401096493, -0.0905530527, 0.0379058793, 0.3364317119, 0.0177927613, -0.0475528128, 0.1173849031, 0.0332918540, -0.2806078196, -0.3327875733, -0.2059698701, -0.2176713943, 0.2156919241, -0.0924421698, -0.0494271331, 0.3735847473, 0.2579455972, -0.0108970907, 0.2383170873, -0.4348141253, -0.4915323853, 0.3170108199, -0.0751268417, 0.3336308599, -0.1971268505, -0.2317870557, 0.1932787299, 0.3249238729, -0.0168100968, -0.2913309932, -0.1935824156, 0.2372972965, 0.0344943069, 0.1947758943, -0.2159477621, 0.1307853013, 0.0972846374, 0.1606453806, 0.1032714471, -0.1408830136, 0.1664181948, 0.2111320049, -0.2501562834, -0.0208984241, 0.3508865535, -0.1697205305, 0.0784350559, 0.0234746169, 0.0695470944, -0.0236889794, -0.3008752465, 0.1704271436, 0.3089253902, 0.2317693830, 0.1731708348, -0.0769040510, 0.2305508256, -0.0000355358, 0.3284282386, -0.2909134626, 0.0808621421, 0.1597913355, 0.0115141375, -0.0923731178, -0.0619984642, -0.1494723856, -0.1039035544, -0.1738512963, 0.1344090700, 0.0400674790, 0.3490708172, 0.2644057572, 0.1493480653, -0.0671638623, 0.1669351012, 0.2826497853, 0.1929995418, 0.3018093705, -0.1826687604, -0.1429477632, -0.1817197651, 0.1100579724, -0.0002148399, -0.2219735831, -0.0799515396, 0.1653005928, -0.1795872748, 0.2715806067, -0.3293149769, -0.0986693129, 0.1614048034, -0.0758446157, -0.1299193501, -0.0552753843, 0.0011821185, 0.1370613575, 0.0340944044, -0.0398460068, -0.0042485818, -0.0548002087, 0.0902846903, -0.1711646020, -0.0232610572, -0.0173066761, -0.2910780609, 0.1306936592, 0.3350243866, 0.0721408129, 0.2434324026, -0.2047703117, -0.3473085463, 0.2972671092, -0.2763741910, -0.1100379080, -0.2426826805, -0.6523821354, -0.2264856547, 0.0620141812, 0.0721732005, 0.1944719255, 0.1809181869, 0.0831090584, 0.1609150171, -0.0721958876, 0.1292640716, 0.2080489546, -0.4986821413, 0.2207079977, 0.1072033718, -0.0000277119, 0.2282171100, -0.0127056343, -0.2448618859, 0.0550677814, -0.1103450581, -0.1559110731, -0.0518336073, -0.3213617802, -0.2288827300, -0.1556333005, 0.1975517422, -0.0397588871, -0.0493755899, 0.0125063714, -0.1653068811, 0.0047067534, 0.2525989413, -0.2031989992, -0.3861342669, -0.1149001196, -0.2126974165, 0.3056715131, -0.2781125009, -0.0000020277, 0.1968861222, 0.0404168591, 0.0243682750, -0.1148654893, -0.3192552030, 0.0286370870, 0.0298124198, -0.0409379415, -0.2890907228, -0.1780965775, 0.1005980670, -0.2017744035, 0.0712862983, -0.1131704673, -0.1215484887, 0.0789853185, 0.2258579284, 0.1171904057, 0.2757463157, 0.3592667878, 0.2178776860, -0.3140777349, 0.1637912095, -0.1062574312, 0.0878456160, 0.2312314212, -0.0668125078, -0.1323693395, -0.0064122048, 0.3069549799, -0.2510966957, -0.0000379615, 0.0560596511, -0.0066915676, 0.1537972689, 0.0093347952, 0.1651046872, -0.1867870986, 0.0902064964, -0.0755492598, -0.0745851696, -0.0222997386, -0.1206108555, -0.0136883650, 0.2277145982, 0.0004216061, 0.3306331336, 0.1440870315, -0.0619322658, 0.1180511490, 0.1103946194, -0.0673765391, -0.2724214196, 0.2437615842, 0.2240463793, 0.3708183169, 0.0071700537, -0.1971094310, -0.2056066990, -0.0728426725, 0.1263505816, 0.1469341815, -0.1461350471, -0.0000520969, 0.4059917629, -0.1968292147, 0.2653627992, 0.0844650790, -0.1026326418, -0.0709782913, 0.1023902297, 0.0570269041, 0.2389193177, 0.1954853237, 0.1988821924, 0.2372532040, -0.2237681448, -0.0919274315, -0.2659164965, -0.1788952500, 0.3318343759, 0.1947160512, 0.0998354033, 0.2331868261, -0.0579089597, 0.0685570687, -0.3129560053, 0.0738814548, -0.0815044269, 0.2358659059, 0.0239969268, 0.3410181403, 0.1381475031, 0.0106205558, 0.3622541428, 0.0259343795, -0.0684376955, 0.0829509497, 0.1120539010, -0.2626321018, 0.0946209803, 0.0588894822, -0.0318691246, 0.0017947524, 0.2898391187, -0.1776559204, 0.1555106938, 0.3113455474, -0.3040359616, 0.0033498243, 0.2155359834, 0.0565980598, 0.0103084780, -0.1405629218, -0.1270318627, -0.2185356319, 0.1242426410, 0.0488779806, 0.0837460607, -0.1646089852, -0.2025443017, -0.1725321114, 0.0277674049, 0.0854537785, -0.0558706783, -0.0858912319, 0.0173661094, -0.1387537867, 0.2043083012, 0.0155970426, 0.3455187082, -0.3283552527, -0.1017156020, 0.0006345124, 0.3910289705, -0.2387962043, 0.2630676627, 0.2055661082, 0.1235465556, -0.0910495520, 0.0660201460, 0.0011687862, 0.3680425286, -0.0040183780, 0.0099678468, 0.2981689572, 0.3607468605, 0.3631648719, -0.0181334205, -0.2394560277, 0.3148902953, 0.2957815826, -0.1440128386, -0.1643590629, -0.0005263230, -0.3862092495, -0.1561043561, -0.1827346832, -0.2830126286, -0.0000180376, 0.0568296239, -0.2685607076, -0.0175284464, -0.0026496181, -0.0590566844, 0.0029132110};

#endif

#endif
